0.06707384
-0.011174074
-0.17359538
-0.0988647
-0.054193206
-0.13106252
-0.022510067
0.099717595
-0.043586988
-0.19181444
-0.13083662
-0.14037697
-0.16769446
-0.11548952
-0.16112302
-0.1980035
0.13469103
-0.23217556
0.008771232
0.01839606
-0.09250397
-0.11159737
-0.1980282
-0.13160089
-0.21464959
-0.13879164
-0.07290821
-0.0069775935
-0.13602929
-0.14039329
-0.2183811
-0.07488935
-0.20414019
-0.12804994
-0.10361338
-0.14503904
0.060462553
-0.058445603
0.06917407
-0.03231968
0.0400522
-0.07783654
-0.09515332
-0.07520551
-0.08121459
-0.07581918
-0.0644684
-0.042885996
-0.19013663
-0.10209547
0.14735495
-0.06404053
-0.07171367
-0.19981301
-0.026940497
-0.13773665
0.053396605
-0.06891319
0.07611703
-0.0053972574
-0.11078681
-0.024546674
-0.03456541
-0.07533742
-0.08081708
-0.047323618
-0.054992948
0.103857286
0.0804656
-0.17315201
-0.09652317
-0.026986772
-0.0019868927
0.01466256
-0.1305936
-0.07165362
-0.04736574
0.018095514
-0.03521379
-0.022102786
-0.016544916
0.05393405
-0.075968154
-0.20487668
-0.19520003
-0.03922791
0.104152896
-0.12320019
-0.07720385
0.084245674
-0.050553747
0.04054428
-0.107169725
-0.015999239
-0.040650122
-0.0076133097
-0.080080956
-0.10044231
-0.10764142
-0.042936306
-0.15414548
0.15901424
0.111614354
-0.065949775
-0.021466484
-0.12690185
-0.011081933
-0.09705719
-0.04295891
0.11249065
0.09082836
-0.11948912
-0.046142466
0.036349043
-0.076223224
0.10706704
-0.034390323
0.04114708
-0.11488223
0.054118045
-0.063929625
0.1396995
-0.044782773
-0.02394894
0.08452998
-0.042961154
0.14619726
-0.043207567
0.19842646
0.0007499445
-0.08047016
-0.006328327
0.11301101
0.2345939
-0.04319294
-0.11181056
-0.16265105
-0.031682167
0.04250455
-0.030605972
0.1414226
0.03267068
-0.034595188
0.0785003
-0.008445188
-0.07252629
-0.035990037
0.05396724
-0.02528972
-0.022793386
-0.21396184
-0.044250436
-0.102793396
-0.12653676
-0.035213906
0.098986715
0.10891
-0.033369858
0.05793664
0.14336345
-0.0065953527
-0.007733998
0.059426464
0.10693071
-0.070637554
-0.027072528
0.11535529
-0.07054127
0.033768956
-0.03413231
0.005919222
0.031931892
-0.027147518
-0.047771223
0.060786918
0.047446493
-0.11993535
-0.018802116
-0.056211524
0.12250573
-0.00094014197
-0.08999343
0.012666658
-0.088594526
-0.03165092
0.057697937
-0.038683046
-0.027565086
-0.05250464
-0.07251585
-0.022250121
0.14438722
-0.017293893
0.15104607
0.08592827
-0.14130495
-0.012235008
